digraph Tree {
node [shape=box, style="filled, rounded", color="black", fontname=helvetica] ;
edge [fontname=helvetica] ;
0 [label=<petal width (cm) &le; 0.8<br/>entropy = 1.578<br/>samples = 90<br/>value = [26, 31, 33]<br/>class = virginica>, fillcolor="#8139e509"] ;
1 [label=<entropy = 0.0<br/>samples = 26<br/>value = [26, 0, 0]<br/>class = setosa>, fillcolor="#e58139ff"] ;
0 -> 1 [labeldistance=2.5, labelangle=45, headlabel="True"] ;
2 [label=<petal width (cm) &le; 1.75<br/>entropy = 0.999<br/>samples = 64<br/>value = [0, 31, 33]<br/>class = virginica>, fillcolor="#8139e50f"] ;
0 -> 2 [labeldistance=2.5, labelangle=-45, headlabel="False"] ;
3 [label=<petal length (cm) &le; 4.95<br/>entropy = 0.439<br/>samples = 33<br/>value = [0, 30, 3]<br/>class = versicolor>, fillcolor="#39e581e6"] ;
2 -> 3 ;
4 [label=<entropy = 0.0<br/>samples = 28<br/>value = [0, 28, 0]<br/>class = versicolor>, fillcolor="#39e581ff"] ;
3 -> 4 ;
5 [label=<entropy = 0.971<br/>samples = 5<br/>value = [0, 2, 3]<br/>class = virginica>, fillcolor="#8139e555"] ;
3 -> 5 ;
6 [label=<petal length (cm) &le; 4.95<br/>entropy = 0.206<br/>samples = 31<br/>value = [0, 1, 30]<br/>class = virginica>, fillcolor="#8139e5f6"] ;
2 -> 6 ;
7 [label=<entropy = 0.811<br/>samples = 4<br/>value = [0, 1, 3]<br/>class = virginica>, fillcolor="#8139e5aa"] ;
6 -> 7 ;
8 [label=<entropy = 0.0<br/>samples = 27<br/>value = [0, 0, 27]<br/>class = virginica>, fillcolor="#8139e5ff"] ;
6 -> 8 ;
}